|--- feature_9039 <= 153.50
|   |--- feature_2502 <= 106.00
|   |   |--- feature_297 <= 918.00
|   |   |   |--- feature_3 <= 1862.50
|   |   |   |   |--- feature_705 <= 366.50
|   |   |   |   |   |--- feature_7091 <= 134.00
|   |   |   |   |   |   |--- feature_210 <= 427.50
|   |   |   |   |   |   |   |--- feature_425 <= 220.50
|   |   |   |   |   |   |   |   |--- feature_7958 <= 2979.00
|   |   |   |   |   |   |   |   |   |--- feature_124 <= 674.50
|   |   |   |   |   |   |   |   |   |   |--- feature_2776 <= 123.00
|   |   |   |   |   |   |   |   |   |   |   |--- feature_5033 <= 114.00
|   |   |   |   |   |   |   |   |   |   |   |   |--- feature_9179 <= 234.50
|   |   |   |   |   |   |   |   |   |   |   |   |   |--- feature_2315 <= 201.50
|   |   |   |   |   |   |   |   |   |   |   |   |   |   |--- feature_132 <= 646.50
|   |   |   |   |   |   |   |   |   |   |   |   |   |   |   |--- feature_520 <= 366.00
|   |   |   |   |   |   |   |   |   |   |   |   |   |   |   |   |--- feature_546 <= 271.50
|   |   |   |   |   |   |   |   |   |   |   |   |   |   |   |   |   |--- feature_1722 <= 260.50
|   |   |   |   |   |   |   |   |   |   |   |   |   |   |   |   |   |   |--- feature_61 <= 209.50
|   |   |   |   |   |   |   |   |   |   |   |   |   |   |   |   |   |   |   |--- feature_8510 <= 236.00
|   |   |   |   |   |   |   |   |   |   |   |   |   |   |   |   |   |   |   |   |--- weights: [13.00, 9.00, 14.00, 9.00, 6.00, 13.00, 6.00, 18.00, 0.00, 4.00, 2.00, 5.00, 1.00, 4.00, 8.00, 12.00, 0.00, 1.00, 3.00, 2.00, 1.00, 5.00, 1.00, 3.00, 1.00, 1.00, 1.00] class: 8
|   |   |   |   |   |   |   |   |   |   |   |   |   |   |   |   |   |   |   |--- feature_8510 >  236.00
|   |   |   |   |   |   |   |   |   |   |   |   |   |   |   |   |   |   |   |   |--- weights: [0.00, 0.00, 0.00, 0.00, 0.00, 0.00, 0.00, 0.00, 0.00, 0.00, 0.00, 8.00, 0.00, 1.00, 0.00, 0.00, 0.00, 0.00, 0.00, 0.00, 0.00, 0.00, 0.00, 0.00, 0.00, 0.00, 0.00] class: 12
|   |   |   |   |   |   |   |   |   |   |   |   |   |   |   |   |   |   |--- feature_61 >  209.50
|   |   |   |   |   |   |   |   |   |   |   |   |   |   |   |   |   |   |   |--- weights: [0.00, 0.00, 0.00, 0.00, 0.00, 0.00, 0.00, 0.00, 0.00, 0.00, 0.00, 0.00, 0.00, 0.00, 0.00, 0.00, 0.00, 7.00, 0.00, 0.00, 0.00, 0.00, 0.00, 0.00, 0.00, 0.00, 0.00] class: 18
|   |   |   |   |   |   |   |   |   |   |   |   |   |   |   |   |   |--- feature_1722 >  260.50
|   |   |   |   |   |   |   |   |   |   |   |   |   |   |   |   |   |   |--- weights: [0.00, 0.00, 0.00, 0.00, 0.00, 0.00, 0.00, 0.00, 0.00, 0.00, 0.00, 0.00, 0.00, 0.00, 9.00, 0.00, 0.00, 0.00, 0.00, 0.00, 0.00, 0.00, 0.00, 0.00, 0.00, 0.00, 0.00] class: 15
|   |   |   |   |   |   |   |   |   |   |   |   |   |   |   |   |--- feature_546 >  271.50
|   |   |   |   |   |   |   |   |   |   |   |   |   |   |   |   |   |--- feature_17 <= 319.50
|   |   |   |   |   |   |   |   |   |   |   |   |   |   |   |   |   |   |--- feature_249 <= 156.50
|   |   |   |   |   |   |   |   |   |   |   |   |   |   |   |   |   |   |   |--- weights: [0.00, 0.00, 0.00, 3.00, 0.00, 0.00, 0.00, 0.00, 0.00, 0.00, 0.00, 0.00, 0.00, 0.00, 0.00, 0.00, 0.00, 0.00, 0.00, 0.00, 0.00, 0.00, 0.00, 0.00, 0.00, 0.00, 0.00] class: 4
|   |   |   |   |   |   |   |   |   |   |   |   |   |   |   |   |   |   |--- feature_249 >  156.50
|   |   |   |   |   |   |   |   |   |   |   |   |   |   |   |   |   |   |   |--- feature_669 <= 402.50
|   |   |   |   |   |   |   |   |   |   |   |   |   |   |   |   |   |   |   |   |--- weights: [0.00, 0.00, 0.00, 0.00, 0.00, 0.00, 0.00, 0.00, 0.00, 0.00, 0.00, 0.00, 0.00, 19.00, 0.00, 0.00, 0.00, 0.00, 0.00, 0.00, 0.00, 0.00, 1.00, 0.00, 0.00, 0.00, 0.00] class: 14
|   |   |   |   |   |   |   |   |   |   |   |   |   |   |   |   |   |   |   |--- feature_669 >  402.50
|   |   |   |   |   |   |   |   |   |   |   |   |   |   |   |   |   |   |   |   |--- weights: [2.00, 0.00, 0.00, 0.00, 0.00, 0.00, 0.00, 0.00, 0.00, 0.00, 0.00, 0.00, 0.00, 0.00, 0.00, 0.00, 0.00, 0.00, 0.00, 0.00, 0.00, 0.00, 0.00, 0.00, 0.00, 0.00, 0.00] class: 1
|   |   |   |   |   |   |   |   |   |   |   |   |   |   |   |   |   |--- feature_17 >  319.50
|   |   |   |   |   |   |   |   |   |   |   |   |   |   |   |   |   |   |--- weights: [0.00, 0.00, 0.00, 0.00, 0.00, 0.00, 0.00, 0.00, 0.00, 0.00, 0.00, 0.00, 0.00, 0.00, 0.00, 0.00, 0.00, 0.00, 0.00, 0.00, 0.00, 4.00, 0.00, 0.00, 0.00, 0.00, 0.00] class: 23
|   |   |   |   |   |   |   |   |   |   |   |   |   |   |   |--- feature_520 >  366.00
|   |   |   |   |   |   |   |   |   |   |   |   |   |   |   |   |--- feature_264 <= 216.00
|   |   |   |   |   |   |   |   |   |   |   |   |   |   |   |   |   |--- feature_163 <= 676.50
|   |   |   |   |   |   |   |   |   |   |   |   |   |   |   |   |   |   |--- feature_630 <= 321.50
|   |   |   |   |   |   |   |   |   |   |   |   |   |   |   |   |   |   |   |--- weights: [0.00, 18.00, 0.00, 0.00, 0.00, 0.00, 0.00, 0.00, 0.00, 0.00, 0.00, 0.00, 0.00, 0.00, 0.00, 0.00, 0.00, 0.00, 0.00, 0.00, 0.00, 0.00, 0.00, 0.00, 0.00, 0.00, 0.00] class: 2
|   |   |   |   |   |   |   |   |   |   |   |   |   |   |   |   |   |   |--- feature_630 >  321.50
|   |   |   |   |   |   |   |   |   |   |   |   |   |   |   |   |   |   |   |--- weights: [0.00, 0.00, 0.00, 0.00, 0.00, 0.00, 0.00, 0.00, 0.00, 0.00, 0.00, 0.00, 0.00, 0.00, 0.00, 1.00, 0.00, 0.00, 0.00, 0.00, 0.00, 0.00, 0.00, 0.00, 0.00, 0.00, 0.00] class: 16
|   |   |   |   |   |   |   |   |   |   |   |   |   |   |   |   |   |--- feature_163 >  676.50
|   |   |   |   |   |   |   |   |   |   |   |   |   |   |   |   |   |   |--- weights: [0.00, 0.00, 2.00, 0.00, 0.00, 0.00, 0.00, 0.00, 0.00, 0.00, 0.00, 0.00, 0.00, 0.00, 0.00, 0.00, 0.00, 0.00, 0.00, 0.00, 0.00, 0.00, 0.00, 0.00, 0.00, 0.00, 0.00] class: 3
|   |   |   |   |   |   |   |   |   |   |   |   |   |   |   |   |--- feature_264 >  216.00
|   |   |   |   |   |   |   |   |   |   |   |   |   |   |   |   |   |--- feature_515 <= 241.00
|   |   |   |   |   |   |   |   |   |   |   |   |   |   |   |   |   |   |--- feature_1973 <= 273.50
|   |   |   |   |   |   |   |   |   |   |   |   |   |   |   |   |   |   |   |--- weights: [0.00, 0.00, 31.00, 0.00, 0.00, 0.00, 0.00, 0.00, 0.00, 0.00, 0.00, 0.00, 0.00, 0.00, 0.00, 0.00, 0.00, 0.00, 0.00, 0.00, 0.00, 0.00, 0.00, 0.00, 0.00, 0.00, 0.00] class: 3
|   |   |   |   |   |   |   |   |   |   |   |   |   |   |   |   |   |   |--- feature_1973 >  273.50
|   |   |   |   |   |   |   |   |   |   |   |   |   |   |   |   |   |   |   |--- weights: [0.00, 0.00, 0.00, 0.00, 0.00, 0.00, 0.00, 0.00, 0.00, 0.00, 0.00, 0.00, 2.00, 0.00, 0.00, 0.00, 0.00, 0.00, 0.00, 0.00, 0.00, 0.00, 0.00, 0.00, 0.00, 0.00, 0.00] class: 13
|   |   |   |   |   |   |   |   |   |   |   |   |   |   |   |   |   |--- feature_515 >  241.00
|   |   |   |   |   |   |   |   |   |   |   |   |   |   |   |   |   |   |--- feature_19 <= 216.00
|   |   |   |   |   |   |   |   |   |   |   |   |   |   |   |   |   |   |   |--- feature_105 <= 228.00
|   |   |   |   |   |   |   |   |   |   |   |   |   |   |   |   |   |   |   |   |--- weights: [0.00, 0.00, 0.00, 0.00, 0.00, 0.00, 1.00, 0.00, 0.00, 0.00, 0.00, 0.00, 0.00, 0.00, 0.00, 0.00, 0.00, 0.00, 0.00, 0.00, 0.00, 0.00, 0.00, 0.00, 0.00, 0.00, 0.00] class: 7
|   |   |   |   |   |   |   |   |   |   |   |   |   |   |   |   |   |   |   |--- feature_105 >  228.00
|   |   |   |   |   |   |   |   |   |   |   |   |   |   |   |   |   |   |   |   |--- weights: [0.00, 0.00, 0.00, 0.00, 0.00, 0.00, 0.00, 0.00, 0.00, 0.00, 0.00, 0.00, 0.00, 0.00, 0.00, 0.00, 0.00, 0.00, 0.00, 0.00, 0.00, 1.00, 0.00, 0.00, 0.00, 0.00, 0.00] class: 23
|   |   |   |   |   |   |   |   |   |   |   |   |   |   |   |   |   |   |--- feature_19 >  216.00
|   |   |   |   |   |   |   |   |   |   |   |   |   |   |   |   |   |   |   |--- weights: [0.00, 0.00, 0.00, 0.00, 0.00, 0.00, 0.00, 0.00, 0.00, 0.00, 0.00, 0.00, 3.00, 0.00, 0.00, 0.00, 0.00, 0.00, 0.00, 0.00, 0.00, 0.00, 0.00, 0.00, 0.00, 0.00, 0.00] class: 13
|   |   |   |   |   |   |   |   |   |   |   |   |   |   |--- feature_132 >  646.50
|   |   |   |   |   |   |   |   |   |   |   |   |   |   |   |--- feature_103 <= 1182.00
|   |   |   |   |   |   |   |   |   |   |   |   |   |   |   |   |--- feature_2090 <= 358.50
|   |   |   |   |   |   |   |   |   |   |   |   |   |   |   |   |   |--- feature_579 <= 260.50
|   |   |   |   |   |   |   |   |   |   |   |   |   |   |   |   |   |   |--- feature_109 <= 805.50
|   |   |   |   |   |   |   |   |   |   |   |   |   |   |   |   |   |   |   |--- feature_28 <= 578.50
|   |   |   |   |   |   |   |   |   |   |   |   |   |   |   |   |   |   |   |   |--- weights: [2.00, 0.00, 0.00, 0.00, 2.00, 0.00, 0.00, 0.00, 0.00, 0.00, 0.00, 0.00, 0.00, 2.00, 0.00, 2.00, 0.00, 0.00, 0.00, 0.00, 0.00, 0.00, 0.00, 0.00, 0.00, 0.00, 0.00] class: 1
|   |   |   |   |   |   |   |   |   |   |   |   |   |   |   |   |   |   |   |--- feature_28 >  578.50
|   |   |   |   |   |   |   |   |   |   |   |   |   |   |   |   |   |   |   |   |--- weights: [0.00, 0.00, 0.00, 0.00, 0.00, 0.00, 0.00, 0.00, 0.00, 0.00, 0.00, 4.00, 0.00, 0.00, 0.00, 0.00, 0.00, 0.00, 0.00, 1.00, 0.00, 0.00, 0.00, 0.00, 0.00, 0.00, 0.00] class: 12
|   |   |   |   |   |   |   |   |   |   |   |   |   |   |   |   |   |   |--- feature_109 >  805.50
|   |   |   |   |   |   |   |   |   |   |   |   |   |   |   |   |   |   |   |--- feature_520 <= 500.50
|   |   |   |   |   |   |   |   |   |   |   |   |   |   |   |   |   |   |   |   |--- weights: [0.00, 0.00, 0.00, 0.00, 0.00, 0.00, 0.00, 6.00, 0.00, 0.00, 0.00, 0.00, 0.00, 0.00, 0.00, 0.00, 0.00, 1.00, 0.00, 0.00, 0.00, 0.00, 0.00, 0.00, 0.00, 0.00, 0.00] class: 8
|   |   |   |   |   |   |   |   |   |   |   |   |   |   |   |   |   |   |   |--- feature_520 >  500.50
|   |   |   |   |   |   |   |   |   |   |   |   |   |   |   |   |   |   |   |   |--- weights: [0.00, 0.00, 2.00, 0.00, 0.00, 0.00, 0.00, 0.00, 0.00, 0.00, 0.00, 0.00, 1.00, 0.00, 0.00, 0.00, 0.00, 0.00, 0.00, 0.00, 0.00, 0.00, 0.00, 0.00, 0.00, 0.00, 0.00] class: 3
|   |   |   |   |   |   |   |   |   |   |   |   |   |   |   |   |   |--- feature_579 >  260.50
|   |   |   |   |   |   |   |   |   |   |   |   |   |   |   |   |   |   |--- feature_491 <= 211.50
|   |   |   |   |   |   |   |   |   |   |   |   |   |   |   |   |   |   |   |--- weights: [0.00, 0.00, 0.00, 0.00, 0.00, 0.00, 0.00, 0.00, 0.00, 0.00, 6.00, 0.00, 0.00, 0.00, 0.00, 0.00, 0.00, 0.00, 0.00, 0.00, 0.00, 0.00, 0.00, 0.00, 0.00, 0.00, 0.00] class: 11
|   |   |   |   |   |   |   |   |   |   |   |   |   |   |   |   |   |   |--- feature_491 >  211.50
|   |   |   |   |   |   |   |   |   |   |   |   |   |   |   |   |   |   |   |--- feature_72 <= 496.50
|   |   |   |   |   |   |   |   |   |   |   |   |   |   |   |   |   |   |   |   |--- weights: [0.00, 0.00, 0.00, 0.00, 0.00, 0.00, 0.00, 0.00, 0.00, 0.00, 0.00, 0.00, 1.00, 0.00, 0.00, 0.00, 0.00, 0.00, 0.00, 0.00, 0.00, 0.00, 0.00, 0.00, 0.00, 0.00, 0.00] class: 13
|   |   |   |   |   |   |   |   |   |   |   |   |   |   |   |   |   |   |   |--- feature_72 >  496.50
|   |   |   |   |   |   |   |   |   |   |   |   |   |   |   |   |   |   |   |   |--- weights: [0.00, 0.00, 2.00, 0.00, 0.00, 0.00, 0.00, 0.00, 0.00, 0.00, 0.00, 0.00, 0.00, 0.00, 0.00, 0.00, 0.00, 0.00, 0.00, 0.00, 0.00, 0.00, 0.00, 0.00, 0.00, 0.00, 0.00] class: 3
|   |   |   |   |   |   |   |   |   |   |   |   |   |   |   |   |--- feature_2090 >  358.50
|   |   |   |   |   |   |   |   |   |   |   |   |   |   |   |   |   |--- feature_606 <= 405.50
|   |   |   |   |   |   |   |   |   |   |   |   |   |   |   |   |   |   |--- weights: [0.00, 0.00, 0.00, 0.00, 0.00, 5.00, 0.00, 0.00, 0.00, 0.00, 0.00, 0.00, 0.00, 0.00, 0.00, 0.00, 0.00, 0.00, 0.00, 0.00, 0.00, 0.00, 0.00, 0.00, 0.00, 0.00, 0.00] class: 6
|   |   |   |   |   |   |   |   |   |   |   |   |   |   |   |   |   |--- feature_606 >  405.50
|   |   |   |   |   |   |   |   |   |   |   |   |   |   |   |   |   |   |--- weights: [0.00, 0.00, 0.00, 0.00, 0.00, 0.00, 0.00, 0.00, 0.00, 0.00, 0.00, 0.00, 0.00, 1.00, 0.00, 0.00, 0.00, 0.00, 0.00, 0.00, 0.00, 0.00, 0.00, 0.00, 0.00, 0.00, 0.00] class: 14
|   |   |   |   |   |   |   |   |   |   |   |   |   |   |   |--- feature_103 >  1182.00
|   |   |   |   |   |   |   |   |   |   |   |   |   |   |   |   |--- feature_33 <= 356.50
|   |   |   |   |   |   |   |   |   |   |   |   |   |   |   |   |   |--- feature_211 <= 874.00
|   |   |   |   |   |   |   |   |   |   |   |   |   |   |   |   |   |   |--- feature_2155 <= 515.00
|   |   |   |   |   |   |   |   |   |   |   |   |   |   |   |   |   |   |   |--- weights: [0.00, 0.00, 0.00, 0.00, 0.00, 0.00, 0.00, 0.00, 0.00, 0.00, 0.00, 0.00, 42.00, 0.00, 0.00, 0.00, 0.00, 0.00, 0.00, 0.00, 0.00, 0.00, 0.00, 0.00, 0.00, 0.00, 0.00] class: 13
|   |   |   |   |   |   |   |   |   |   |   |   |   |   |   |   |   |   |--- feature_2155 >  515.00
|   |   |   |   |   |   |   |   |   |   |   |   |   |   |   |   |   |   |   |--- weights: [0.00, 0.00, 0.00, 0.00, 1.00, 0.00, 0.00, 0.00, 0.00, 0.00, 0.00, 0.00, 0.00, 0.00, 0.00, 0.00, 0.00, 0.00, 0.00, 0.00, 0.00, 0.00, 0.00, 0.00, 0.00, 0.00, 0.00] class: 5
|   |   |   |   |   |   |   |   |   |   |   |   |   |   |   |   |   |--- feature_211 >  874.00
|   |   |   |   |   |   |   |   |   |   |   |   |   |   |   |   |   |   |--- feature_637 <= 437.00
|   |   |   |   |   |   |   |   |   |   |   |   |   |   |   |   |   |   |   |--- weights: [0.00, 0.00, 0.00, 0.00, 0.00, 0.00, 0.00, 0.00, 0.00, 0.00, 0.00, 1.00, 0.00, 0.00, 0.00, 0.00, 0.00, 0.00, 0.00, 0.00, 0.00, 0.00, 0.00, 0.00, 0.00, 0.00, 0.00] class: 12
|   |   |   |   |   |   |   |   |   |   |   |   |   |   |   |   |   |   |--- feature_637 >  437.00
|   |   |   |   |   |   |   |   |   |   |   |   |   |   |   |   |   |   |   |--- weights: [0.00, 0.00, 0.00, 0.00, 0.00, 1.00, 0.00, 0.00, 0.00, 0.00, 0.00, 0.00, 0.00, 0.00, 0.00, 0.00, 0.00, 0.00, 0.00, 0.00, 0.00, 0.00, 0.00, 0.00, 0.00, 0.00, 0.00] class: 6
|   |   |   |   |   |   |   |   |   |   |   |   |   |   |   |   |--- feature_33 >  356.50
|   |   |   |   |   |   |   |   |   |   |   |   |   |   |   |   |   |--- feature_472 <= 684.50
|   |   |   |   |   |   |   |   |   |   |   |   |   |   |   |   |   |   |--- feature_352 <= 182.50
|   |   |   |   |   |   |   |   |   |   |   |   |   |   |   |   |   |   |   |--- feature_337 <= 356.50
|   |   |   |   |   |   |   |   |   |   |   |   |   |   |   |   |   |   |   |   |--- weights: [0.00, 1.00, 0.00, 0.00, 0.00, 0.00, 0.00, 0.00, 0.00, 0.00, 0.00, 0.00, 0.00, 0.00, 0.00, 0.00, 0.00, 0.00, 0.00, 0.00, 0.00, 0.00, 0.00, 0.00, 0.00, 0.00, 0.00] class: 2
|   |   |   |   |   |   |   |   |   |   |   |   |   |   |   |   |   |   |   |--- feature_337 >  356.50
|   |   |   |   |   |   |   |   |   |   |   |   |   |   |   |   |   |   |   |   |--- weights: [0.00, 0.00, 0.00, 0.00, 0.00, 1.00, 0.00, 0.00, 0.00, 0.00, 0.00, 0.00, 0.00, 0.00, 0.00, 0.00, 0.00, 0.00, 0.00, 0.00, 0.00, 0.00, 0.00, 0.00, 0.00, 0.00, 0.00] class: 6
|   |   |   |   |   |   |   |   |   |   |   |   |   |   |   |   |   |   |--- feature_352 >  182.50
|   |   |   |   |   |   |   |   |   |   |   |   |   |   |   |   |   |   |   |--- feature_86 <= 364.50
|   |   |   |   |   |   |   |   |   |   |   |   |   |   |   |   |   |   |   |   |--- weights: [0.00, 0.00, 0.00, 0.00, 0.00, 0.00, 0.00, 0.00, 0.00, 0.00, 0.00, 0.00, 0.00, 1.00, 0.00, 0.00, 0.00, 0.00, 0.00, 0.00, 0.00, 0.00, 0.00, 0.00, 0.00, 0.00, 0.00] class: 14
|   |   |   |   |   |   |   |   |   |   |   |   |   |   |   |   |   |   |   |--- feature_86 >  364.50
|   |   |   |   |   |   |   |   |   |   |   |   |   |   |   |   |   |   |   |   |--- weights: [0.00, 0.00, 0.00, 0.00, 1.00, 0.00, 0.00, 0.00, 0.00, 0.00, 0.00, 0.00, 0.00, 0.00, 0.00, 0.00, 0.00, 0.00, 0.00, 0.00, 0.00, 0.00, 0.00, 0.00, 0.00, 0.00, 0.00] class: 5
|   |   |   |   |   |   |   |   |   |   |   |   |   |   |   |   |   |--- feature_472 >  684.50
|   |   |   |   |   |   |   |   |   |   |   |   |   |   |   |   |   |   |--- weights: [0.00, 0.00, 0.00, 0.00, 0.00, 0.00, 0.00, 0.00, 0.00, 0.00, 3.00, 0.00, 0.00, 0.00, 0.00, 0.00, 0.00, 0.00, 0.00, 0.00, 0.00, 0.00, 0.00, 0.00, 0.00, 0.00, 0.00] class: 11
|   |   |   |   |   |   |   |   |   |   |   |   |   |--- feature_2315 >  201.50
|   |   |   |   |   |   |   |   |   |   |   |   |   |   |--- weights: [0.00, 0.00, 0.00, 0.00, 0.00, 0.00, 0.00, 24.00, 0.00, 0.00, 0.00, 0.00, 0.00, 0.00, 0.00, 0.00, 0.00, 0.00, 0.00, 0.00, 0.00, 0.00, 0.00, 0.00, 0.00, 0.00, 0.00] class: 8
|   |   |   |   |   |   |   |   |   |   |   |   |--- feature_9179 >  234.50
|   |   |   |   |   |   |   |   |   |   |   |   |   |--- weights: [0.00, 0.00, 0.00, 0.00, 0.00, 0.00, 0.00, 0.00, 0.00, 0.00, 0.00, 0.00, 0.00, 0.00, 23.00, 0.00, 0.00, 0.00, 0.00, 0.00, 0.00, 0.00, 0.00, 0.00, 0.00, 0.00, 0.00] class: 15
|   |   |   |   |   |   |   |   |   |   |   |--- feature_5033 >  114.00
|   |   |   |   |   |   |   |   |   |   |   |   |--- weights: [0.00, 33.00, 0.00, 0.00, 0.00, 0.00, 0.00, 0.00, 0.00, 0.00, 0.00, 0.00, 0.00, 0.00, 0.00, 0.00, 0.00, 0.00, 0.00, 0.00, 0.00, 0.00, 0.00, 0.00, 0.00, 0.00, 0.00] class: 2
|   |   |   |   |   |   |   |   |   |   |--- feature_2776 >  123.00
|   |   |   |   |   |   |   |   |   |   |   |--- feature_273 <= 512.00
|   |   |   |   |   |   |   |   |   |   |   |   |--- weights: [0.00, 0.00, 0.00, 0.00, 0.00, 0.00, 0.00, 0.00, 0.00, 0.00, 0.00, 0.00, 0.00, 36.00, 0.00, 0.00, 0.00, 0.00, 0.00, 0.00, 0.00, 0.00, 0.00, 0.00, 0.00, 0.00, 0.00] class: 14
|   |   |   |   |   |   |   |   |   |   |   |--- feature_273 >  512.00
|   |   |   |   |   |   |   |   |   |   |   |   |--- weights: [0.00, 0.00, 0.00, 0.00, 0.00, 0.00, 0.00, 0.00, 0.00, 0.00, 0.00, 1.00, 0.00, 0.00, 0.00, 0.00, 0.00, 0.00, 0.00, 0.00, 0.00, 0.00, 0.00, 0.00, 0.00, 0.00, 0.00] class: 12
|   |   |   |   |   |   |   |   |   |--- feature_124 >  674.50
|   |   |   |   |   |   |   |   |   |   |--- feature_515 <= 349.00
|   |   |   |   |   |   |   |   |   |   |   |--- feature_63 <= 125.50
|   |   |   |   |   |   |   |   |   |   |   |   |--- feature_3700 <= 395.00
|   |   |   |   |   |   |   |   |   |   |   |   |   |--- weights: [0.00, 0.00, 0.00, 0.00, 0.00, 0.00, 0.00, 0.00, 0.00, 0.00, 39.00, 0.00, 0.00, 0.00, 0.00, 0.00, 0.00, 0.00, 0.00, 0.00, 0.00, 0.00, 0.00, 0.00, 0.00, 0.00, 0.00] class: 11
|   |   |   |   |   |   |   |   |   |   |   |   |--- feature_3700 >  395.00
|   |   |   |   |   |   |   |   |   |   |   |   |   |--- weights: [0.00, 0.00, 0.00, 0.00, 0.00, 0.00, 0.00, 0.00, 0.00, 0.00, 0.00, 0.00, 0.00, 0.00, 1.00, 0.00, 0.00, 0.00, 0.00, 0.00, 0.00, 0.00, 0.00, 0.00, 0.00, 0.00, 0.00] class: 15
|   |   |   |   |   |   |   |   |   |   |   |--- feature_63 >  125.50
|   |   |   |   |   |   |   |   |   |   |   |   |--- weights: [0.00, 0.00, 0.00, 0.00, 0.00, 0.00, 0.00, 0.00, 0.00, 0.00, 0.00, 0.00, 0.00, 0.00, 0.00, 0.00, 0.00, 2.00, 0.00, 0.00, 0.00, 0.00, 0.00, 0.00, 0.00, 0.00, 0.00] class: 18
|   |   |   |   |   |   |   |   |   |   |--- feature_515 >  349.00
|   |   |   |   |   |   |   |   |   |   |   |--- weights: [0.00, 0.00, 0.00, 0.00, 0.00, 0.00, 0.00, 0.00, 0.00, 0.00, 0.00, 0.00, 0.00, 0.00, 3.00, 0.00, 0.00, 0.00, 0.00, 0.00, 0.00, 0.00, 0.00, 0.00, 0.00, 0.00, 0.00] class: 15
|   |   |   |   |   |   |   |   |--- feature_7958 >  2979.00
|   |   |   |   |   |   |   |   |   |--- weights: [0.00, 0.00, 0.00, 0.00, 0.00, 0.00, 0.00, 0.00, 0.00, 0.00, 0.00, 0.00, 0.00, 0.00, 0.00, 0.00, 32.00, 0.00, 0.00, 0.00, 0.00, 0.00, 0.00, 0.00, 0.00, 0.00, 0.00] class: 17
|   |   |   |   |   |   |   |--- feature_425 >  220.50
|   |   |   |   |   |   |   |   |--- feature_249 <= 111.50
|   |   |   |   |   |   |   |   |   |--- feature_619 <= 722.50
|   |   |   |   |   |   |   |   |   |   |--- feature_70 <= 428.50
|   |   |   |   |   |   |   |   |   |   |   |--- feature_507 <= 992.50
|   |   |   |   |   |   |   |   |   |   |   |   |--- feature_110 <= 395.50
|   |   |   |   |   |   |   |   |   |   |   |   |   |--- feature_356 <= 443.00
|   |   |   |   |   |   |   |   |   |   |   |   |   |   |--- feature_424 <= 122.00
|   |   |   |   |   |   |   |   |   |   |   |   |   |   |   |--- weights: [1.00, 0.00, 0.00, 0.00, 0.00, 0.00, 0.00, 0.00, 0.00, 0.00, 0.00, 0.00, 0.00, 0.00, 0.00, 0.00, 0.00, 0.00, 0.00, 0.00, 0.00, 0.00, 0.00, 0.00, 0.00, 0.00, 0.00] class: 1
|   |   |   |   |   |   |   |   |   |   |   |   |   |   |--- feature_424 >  122.00
|   |   |   |   |   |   |   |   |   |   |   |   |   |   |   |--- weights: [0.00, 0.00, 0.00, 0.00, 0.00, 0.00, 0.00, 0.00, 0.00, 0.00, 0.00, 0.00, 0.00, 0.00, 0.00, 0.00, 0.00, 0.00, 0.00, 0.00, 0.00, 1.00, 0.00, 0.00, 0.00, 0.00, 0.00] class: 23
|   |   |   |   |   |   |   |   |   |   |   |   |   |--- feature_356 >  443.00
|   |   |   |   |   |   |   |   |   |   |   |   |   |   |--- weights: [0.00, 0.00, 0.00, 0.00, 0.00, 0.00, 0.00, 0.00, 0.00, 0.00, 0.00, 0.00, 0.00, 1.00, 0.00, 0.00, 0.00, 0.00, 0.00, 0.00, 0.00, 0.00, 0.00, 0.00, 0.00, 0.00, 0.00] class: 14
|   |   |   |   |   |   |   |   |   |   |   |   |--- feature_110 >  395.50
|   |   |   |   |   |   |   |   |   |   |   |   |   |--- weights: [0.00, 0.00, 0.00, 0.00, 0.00, 0.00, 0.00, 0.00, 0.00, 2.00, 0.00, 0.00, 0.00, 0.00, 0.00, 0.00, 0.00, 0.00, 0.00, 0.00, 0.00, 0.00, 0.00, 0.00, 0.00, 0.00, 0.00] class: 10
|   |   |   |   |   |   |   |   |   |   |   |--- feature_507 >  992.50
|   |   |   |   |   |   |   |   |   |   |   |   |--- weights: [0.00, 0.00, 0.00, 0.00, 0.00, 0.00, 0.00, 2.00, 0.00, 0.00, 0.00, 0.00, 0.00, 0.00, 0.00, 0.00, 0.00, 0.00, 0.00, 0.00, 0.00, 0.00, 0.00, 0.00, 0.00, 0.00, 0.00] class: 8
|   |   |   |   |   |   |   |   |   |   |--- feature_70 >  428.50
|   |   |   |   |   |   |   |   |   |   |   |--- weights: [0.00, 0.00, 0.00, 0.00, 0.00, 0.00, 0.00, 0.00, 0.00, 0.00, 0.00, 0.00, 0.00, 0.00, 0.00, 0.00, 0.00, 3.00, 0.00, 0.00, 0.00, 0.00, 0.00, 0.00, 0.00, 0.00, 0.00] class: 18
|   |   |   |   |   |   |   |   |   |--- feature_619 >  722.50
|   |   |   |   |   |   |   |   |   |   |--- weights: [0.00, 0.00, 3.00, 0.00, 0.00, 0.00, 0.00, 0.00, 0.00, 0.00, 0.00, 0.00, 0.00, 0.00, 0.00, 0.00, 0.00, 0.00, 0.00, 0.00, 0.00, 0.00, 0.00, 0.00, 0.00, 0.00, 0.00] class: 3
|   |   |   |   |   |   |   |   |--- feature_249 >  111.50
|   |   |   |   |   |   |   |   |   |--- feature_546 <= 53.00
|   |   |   |   |   |   |   |   |   |   |--- feature_105 <= 186.50
|   |   |   |   |   |   |   |   |   |   |   |--- weights: [0.00, 0.00, 0.00, 0.00, 0.00, 54.00, 0.00, 0.00, 0.00, 0.00, 0.00, 0.00, 0.00, 0.00, 0.00, 0.00, 0.00, 0.00, 0.00, 0.00, 0.00, 0.00, 0.00, 0.00, 0.00, 0.00, 0.00] class: 6
|   |   |   |   |   |   |   |   |   |   |--- feature_105 >  186.50
|   |   |   |   |   |   |   |   |   |   |   |--- feature_7225 <= 186.50
|   |   |   |   |   |   |   |   |   |   |   |   |--- weights: [0.00, 0.00, 0.00, 0.00, 0.00, 0.00, 0.00, 0.00, 0.00, 0.00, 1.00, 0.00, 0.00, 0.00, 0.00, 0.00, 0.00, 0.00, 0.00, 0.00, 0.00, 0.00, 0.00, 0.00, 0.00, 0.00, 0.00] class: 11
|   |   |   |   |   |   |   |   |   |   |   |--- feature_7225 >  186.50
|   |   |   |   |   |   |   |   |   |   |   |   |--- weights: [0.00, 1.00, 0.00, 0.00, 0.00, 0.00, 0.00, 0.00, 0.00, 0.00, 0.00, 0.00, 0.00, 0.00, 0.00, 0.00, 0.00, 0.00, 0.00, 0.00, 0.00, 0.00, 0.00, 0.00, 0.00, 0.00, 0.00] class: 2
|   |   |   |   |   |   |   |   |   |--- feature_546 >  53.00
|   |   |   |   |   |   |   |   |   |   |--- feature_568 <= 204.00
|   |   |   |   |   |   |   |   |   |   |   |--- feature_82 <= 88.00
|   |   |   |   |   |   |   |   |   |   |   |   |--- weights: [0.00, 0.00, 0.00, 0.00, 0.00, 0.00, 0.00, 0.00, 0.00, 0.00, 0.00, 0.00, 0.00, 0.00, 0.00, 0.00, 0.00, 0.00, 0.00, 0.00, 0.00, 2.00, 0.00, 0.00, 0.00, 0.00, 0.00] class: 23
|   |   |   |   |   |   |   |   |   |   |   |--- feature_82 >  88.00
|   |   |   |   |   |   |   |   |   |   |   |   |--- weights: [0.00, 0.00, 0.00, 0.00, 0.00, 0.00, 0.00, 0.00, 0.00, 0.00, 0.00, 0.00, 0.00, 0.00, 0.00, 1.00, 0.00, 0.00, 0.00, 0.00, 0.00, 0.00, 0.00, 0.00, 0.00, 0.00, 0.00] class: 16
|   |   |   |   |   |   |   |   |   |   |--- feature_568 >  204.00
|   |   |   |   |   |   |   |   |   |   |   |--- weights: [0.00, 0.00, 0.00, 0.00, 0.00, 0.00, 0.00, 0.00, 0.00, 0.00, 0.00, 0.00, 0.00, 3.00, 0.00, 0.00, 0.00, 0.00, 0.00, 0.00, 0.00, 0.00, 0.00, 0.00, 0.00, 0.00, 0.00] class: 14
|   |   |   |   |   |   |--- feature_210 >  427.50
|   |   |   |   |   |   |   |--- feature_481 <= 1025.00
|   |   |   |   |   |   |   |   |--- feature_63 <= 146.50
|   |   |   |   |   |   |   |   |   |--- feature_174 <= 694.50
|   |   |   |   |   |   |   |   |   |   |--- feature_6255 <= 221.50
|   |   |   |   |   |   |   |   |   |   |   |--- weights: [0.00, 0.00, 0.00, 0.00, 0.00, 0.00, 0.00, 8.00, 0.00, 0.00, 0.00, 0.00, 0.00, 0.00, 0.00, 0.00, 0.00, 0.00, 0.00, 0.00, 0.00, 0.00, 0.00, 0.00, 0.00, 0.00, 0.00] class: 8
|   |   |   |   |   |   |   |   |   |   |--- feature_6255 >  221.50
|   |   |   |   |   |   |   |   |   |   |   |--- weights: [0.00, 0.00, 0.00, 0.00, 0.00, 0.00, 0.00, 0.00, 0.00, 0.00, 0.00, 0.00, 0.00, 0.00, 1.00, 0.00, 0.00, 0.00, 0.00, 0.00, 0.00, 0.00, 0.00, 0.00, 0.00, 0.00, 0.00] class: 15
|   |   |   |   |   |   |   |   |   |--- feature_174 >  694.50
|   |   |   |   |   |   |   |   |   |   |--- feature_251 <= 489.50
|   |   |   |   |   |   |   |   |   |   |   |--- weights: [0.00, 0.00, 0.00, 0.00, 0.00, 0.00, 0.00, 0.00, 0.00, 0.00, 0.00, 0.00, 0.00, 0.00, 0.00, 0.00, 0.00, 1.00, 0.00, 0.00, 0.00, 0.00, 0.00, 0.00, 0.00, 0.00, 0.00] class: 18
|   |   |   |   |   |   |   |   |   |   |--- feature_251 >  489.50
|   |   |   |   |   |   |   |   |   |   |   |--- weights: [0.00, 0.00, 0.00, 0.00, 0.00, 0.00, 0.00, 0.00, 0.00, 0.00, 1.00, 0.00, 0.00, 0.00, 0.00, 0.00, 0.00, 0.00, 0.00, 0.00, 0.00, 0.00, 0.00, 0.00, 0.00, 0.00, 0.00] class: 11
|   |   |   |   |   |   |   |   |--- feature_63 >  146.50
|   |   |   |   |   |   |   |   |   |--- weights: [0.00, 0.00, 0.00, 0.00, 0.00, 0.00, 0.00, 0.00, 0.00, 0.00, 0.00, 0.00, 0.00, 0.00, 0.00, 0.00, 0.00, 6.00, 0.00, 0.00, 0.00, 0.00, 0.00, 0.00, 0.00, 0.00, 0.00] class: 18
|   |   |   |   |   |   |   |--- feature_481 >  1025.00
|   |   |   |   |   |   |   |   |--- weights: [0.00, 0.00, 0.00, 50.00, 0.00, 0.00, 0.00, 0.00, 0.00, 0.00, 0.00, 0.00, 0.00, 0.00, 0.00, 0.00, 0.00, 0.00, 0.00, 0.00, 0.00, 0.00, 0.00, 0.00, 0.00, 0.00, 0.00] class: 4
|   |   |   |   |   |--- feature_7091 >  134.00
|   |   |   |   |   |   |--- weights: [0.00, 0.00, 0.00, 0.00, 37.00, 0.00, 0.00, 0.00, 0.00, 0.00, 0.00, 0.00, 0.00, 0.00, 0.00, 0.00, 0.00, 0.00, 0.00, 0.00, 0.00, 0.00, 0.00, 0.00, 0.00, 0.00, 0.00] class: 5
|   |   |   |   |--- feature_705 >  366.50
|   |   |   |   |   |--- feature_426 <= 134.50
|   |   |   |   |   |   |--- feature_210 <= 939.50
|   |   |   |   |   |   |   |--- weights: [50.00, 0.00, 0.00, 0.00, 0.00, 0.00, 0.00, 0.00, 0.00, 0.00, 0.00, 0.00, 0.00, 0.00, 0.00, 0.00, 0.00, 0.00, 0.00, 0.00, 0.00, 0.00, 0.00, 0.00, 0.00, 0.00, 0.00] class: 1
|   |   |   |   |   |   |--- feature_210 >  939.50
|   |   |   |   |   |   |   |--- weights: [0.00, 0.00, 0.00, 1.00, 0.00, 0.00, 0.00, 0.00, 0.00, 0.00, 0.00, 0.00, 0.00, 0.00, 0.00, 0.00, 0.00, 0.00, 0.00, 0.00, 0.00, 0.00, 0.00, 0.00, 0.00, 0.00, 0.00] class: 4
|   |   |   |   |   |--- feature_426 >  134.50
|   |   |   |   |   |   |--- weights: [0.00, 0.00, 0.00, 0.00, 0.00, 0.00, 0.00, 0.00, 0.00, 0.00, 0.00, 0.00, 0.00, 0.00, 0.00, 2.00, 0.00, 0.00, 0.00, 0.00, 0.00, 0.00, 0.00, 0.00, 0.00, 0.00, 0.00] class: 16
|   |   |   |--- feature_3 >  1862.50
|   |   |   |   |--- weights: [0.00, 0.00, 0.00, 0.00, 0.00, 0.00, 0.00, 0.00, 0.00, 47.00, 0.00, 0.00, 0.00, 0.00, 0.00, 0.00, 0.00, 0.00, 0.00, 0.00, 0.00, 0.00, 0.00, 0.00, 0.00, 0.00, 0.00] class: 10
|   |   |--- feature_297 >  918.00
|   |   |   |--- feature_600 <= 785.00
|   |   |   |   |--- feature_123 <= 1382.50
|   |   |   |   |   |--- weights: [0.00, 0.00, 0.00, 0.00, 0.00, 0.00, 54.00, 0.00, 0.00, 0.00, 0.00, 0.00, 0.00, 0.00, 0.00, 0.00, 0.00, 0.00, 0.00, 0.00, 0.00, 0.00, 0.00, 0.00, 0.00, 0.00, 0.00] class: 7
|   |   |   |   |--- feature_123 >  1382.50
|   |   |   |   |   |--- weights: [0.00, 0.00, 0.00, 0.00, 0.00, 0.00, 0.00, 0.00, 0.00, 0.00, 0.00, 0.00, 0.00, 0.00, 0.00, 0.00, 0.00, 0.00, 0.00, 0.00, 0.00, 1.00, 0.00, 0.00, 0.00, 0.00, 0.00] class: 23
|   |   |   |--- feature_600 >  785.00
|   |   |   |   |--- feature_399 <= 420.50
|   |   |   |   |   |--- weights: [0.00, 0.00, 1.00, 0.00, 0.00, 0.00, 0.00, 0.00, 0.00, 0.00, 0.00, 0.00, 0.00, 0.00, 0.00, 0.00, 0.00, 0.00, 0.00, 0.00, 0.00, 0.00, 0.00, 0.00, 0.00, 0.00, 0.00] class: 3
|   |   |   |   |--- feature_399 >  420.50
|   |   |   |   |   |--- weights: [0.00, 0.00, 0.00, 0.00, 0.00, 0.00, 0.00, 0.00, 0.00, 0.00, 0.00, 0.00, 0.00, 0.00, 0.00, 1.00, 0.00, 0.00, 0.00, 0.00, 0.00, 0.00, 0.00, 0.00, 0.00, 0.00, 0.00] class: 16
|   |--- feature_2502 >  106.00
|   |   |--- weights: [0.00, 0.00, 0.00, 0.00, 0.00, 0.00, 0.00, 0.00, 60.00, 0.00, 0.00, 0.00, 0.00, 0.00, 0.00, 0.00, 0.00, 0.00, 0.00, 0.00, 0.00, 0.00, 0.00, 0.00, 0.00, 0.00, 0.00] class: 9
|--- feature_9039 >  153.50
|   |--- weights: [0.00, 0.00, 0.00, 0.00, 0.00, 0.00, 0.00, 0.00, 0.00, 0.00, 0.00, 64.00, 0.00, 0.00, 0.00, 0.00, 0.00, 0.00, 0.00, 0.00, 0.00, 0.00, 0.00, 0.00, 0.00, 0.00, 0.00] class: 12
